svm_type c_svc
kernel_type polynomial
degree 3
gamma 0.25
coef0 0
nr_class 2
total_sv 3
rho -1.1357583700277185
label 1 -1
nr_sv 2 1
SV
0.0088864128228190731 1:5.1 2:3.3 3:1.7 4:0.5 
0.00050980321975595201 1:4.5 2:2.3 3:1.3 4:0.3 
-0.009396216042575024 1:5.1 2:2.5 3:3 4:1.1 
