svm_type c_svc
kernel_type linear
nr_class 2
total_sv 3
rho -1.4528444969775751
label 1 -1
nr_sv 2 1
SV
0.67075289031035201 1:5.1 2:3.3 3:1.7 4:0.5 
0.07709756347590406 1:4.5 2:2.3 3:1.3 4:0.3 
-0.74785045378625603 1:5.1 2:2.5 3:3 4:1.1 
