svm_type c_svc
kernel_type rbf
gamma 0.25
nr_class 2
total_sv 11
rho 0.039856910512058322
label 1 -1
nr_sv 6 5
SV
0.43862441044643408 1:5.7 2:4.4 3:1.5 4:0.4 
0.066631158312814923 1:5.7 2:3.8 3:1.7 4:0.3 
0.0022770207499684088 1:5.1 2:3.3 3:1.7 4:0.5 
0.35843112572827146 1:4.8 2:3.4 3:1.9 4:0.2 
1 1:4.5 2:2.3 3:1.3 4:0.3 
0.45885823439706869 1:5.1 2:3.8 3:1.9 4:0.4 
-0.55171008204898753 1:7 2:3.2 3:4.7 4:1.4 
-0.54282930660951112 1:4.9 2:2.4 3:3.3 4:1 
-0.16649097181518879 1:6.7 2:3 3:5 4:1.7 
-0.063791589160870119 1:6 2:2.7 3:5.1 4:1.6 
-1 1:5.1 2:2.5 3:3 4:1.1 
